Language model created by QuickLM on Thu Jul 24 19:56:54 EDT 2014
Copyright (c) 1996-2010 Carnegie Mellon University and Alexander I. Rudnicky

The model is in standard ARPA format, designed by Doug Paul while he was at MITRE.

The code that was used to produce this language model is available in Open Source.
Please visit http://www.speech.cs.cmu.edu/tools/ for more information

The (fixed) discount mass is 0.5. The backoffs are computed using the ratio method.
This model based on a corpus of 7 sentences and 9 words

\data\
ngram 1=9
ngram 2=14
ngram 3=7

\1-grams:
-0.7782 </s> -0.3010
-0.7782 <s> -0.2218
-1.6232 DETECT-SURFACE -0.2218
-1.6232 RELEASE-TOOL -0.2218
-1.6232 REPLAY-DEMONSTRATION -0.2218
-1.6232 START-RECORDING -0.2218
-1.6232 STOP-RECORDING -0.2218
-1.6232 TAKE-TOOL -0.2218
-1.6232 TEST-MICROPHONE -0.2218

\2-grams:
-1.1461 <s> DETECT-SURFACE 0.0000
-1.1461 <s> RELEASE-TOOL 0.0000
-1.1461 <s> REPLAY-DEMONSTRATION 0.0000
-1.1461 <s> START-RECORDING 0.0000
-1.1461 <s> STOP-RECORDING 0.0000
-1.1461 <s> TAKE-TOOL 0.0000
-1.1461 <s> TEST-MICROPHONE 0.0000
-0.3010 DETECT-SURFACE </s> -0.3010
-0.3010 RELEASE-TOOL </s> -0.3010
-0.3010 REPLAY-DEMONSTRATION </s> -0.3010
-0.3010 START-RECORDING </s> -0.3010
-0.3010 STOP-RECORDING </s> -0.3010
-0.3010 TAKE-TOOL </s> -0.3010
-0.3010 TEST-MICROPHONE </s> -0.3010

\3-grams:
-0.3010 <s> DETECT-SURFACE </s>
-0.3010 <s> RELEASE-TOOL </s>
-0.3010 <s> REPLAY-DEMONSTRATION </s>
-0.3010 <s> START-RECORDING </s>
-0.3010 <s> STOP-RECORDING </s>
-0.3010 <s> TAKE-TOOL </s>
-0.3010 <s> TEST-MICROPHONE </s>

\end\
